FANN_FLO_2.1
num_layers=3
learning_rate=0.100000
connection_rate=1.000000
network_type=0
learning_momentum=0.000000
training_algorithm=2
train_error_function=1
train_stop_function=0
cascade_output_change_fraction=0.010000
quickprop_decay=-0.000100
quickprop_mu=1.750000
rprop_increase_factor=1.200000
rprop_decrease_factor=0.500000
rprop_delta_min=0.000000
rprop_delta_max=50.000000
rprop_delta_zero=0.100000
cascade_output_stagnation_epochs=12
cascade_candidate_change_fraction=0.010000
cascade_candidate_stagnation_epochs=12
cascade_max_out_epochs=150
cascade_max_cand_epochs=150
cascade_num_candidate_groups=2
bit_fail_limit=3.49999999999999977796e-01
cascade_candidate_limit=1.00000000000000000000e+03
cascade_weight_multiplier=4.00000000000000022204e-01
cascade_activation_functions_count=10
cascade_activation_functions=3 5 7 8 10 11 14 15 16 17 
cascade_activation_steepnesses_count=4
cascade_activation_steepnesses=2.50000000000000000000e-01 5.00000000000000000000e-01 7.50000000000000000000e-01 1.00000000000000000000e+00 
layer_sizes=3 9 3 
scale_included=0
neurons (num_inputs, activation_function, activation_steepness)=(0, 0, 0.00000000000000000000e+00) (0, 0, 0.00000000000000000000e+00) (0, 0, 0.00000000000000000000e+00) (3, 5, 5.00000000000000000000e-01) (3, 5, 5.00000000000000000000e-01) (3, 5, 5.00000000000000000000e-01) (3, 5, 5.00000000000000000000e-01) (3, 5, 5.00000000000000000000e-01) (3, 5, 5.00000000000000000000e-01) (3, 5, 5.00000000000000000000e-01) (3, 5, 5.00000000000000000000e-01) (0, 5, 0.00000000000000000000e+00) (9, 0, 5.00000000000000000000e-01) (9, 0, 5.00000000000000000000e-01) (0, 0, 0.00000000000000000000e+00) 
connections (connected_to_neuron, weight)=(0, 5.70314403542924064361e-01) (1, 1.32204484348906037283e+00) (2, -5.74572193048211277144e-01) (0, -5.76764185813752483512e+00) (1, 5.44544899213031285967e+00) (2, 4.47768072844169573443e+00) (0, 8.45211214250084830191e-01) (1, 1.00716345668575124606e+00) (2, -4.03279381758547272874e-01) (0, -1.02855361710482418047e+00) (1, -3.68177945310045162675e-01) (2, 3.61286976559541395115e-01) (0, -3.47280740518680364204e+00) (1, -2.32823504253421020849e+00) (2, 1.20947451965414745634e-01) (0, 1.05038296866560720844e+00) (1, 1.16000146696136763325e+00) (2, 4.23705678114125183775e-01) (0, -2.84930765112099404490e+00) (1, 6.33742870588294926470e-01) (2, 4.54181973239811520582e-01) (0, 3.54078720336250629686e+00) (1, -1.93472010207837175066e+00) (2, 1.57791744150045265549e+00) (3, 2.05729447905839180066e+00) (4, -6.79935310340183840516e-01) (5, 6.47247669933955460664e+00) (6, -4.80526802012722775714e+00) (7, 4.04574732792460345365e+00) (8, 4.52680650865378356174e-02) (9, 1.66903985871349469505e+00) (10, -1.50267461907104116214e+00) (11, 3.00110879462169588550e+00) (3, -3.04649991923629803736e+00) (4, 2.01102189573751122253e+00) (5, -1.00636974988885938842e+01) (6, 8.76108241968360346164e+00) (7, -4.57267085609675660862e+00) (8, -4.23894138826855615410e-01) (9, 6.42292265876590162677e-01) (10, 3.65464390027058660948e+00) (11, -3.58736777525128225363e-01) 
